FANN_FLO_1.1
3 0.700000 1.000000 0 5 5 5.00000000000000000000e-001 5.00000000000000000000e-001
21 4 5 
0 0 0 0 0 0 0 0 0 0 0 0 0 0 0 0 0 0 0 0 0 
21 21 21 0 
4 4 4 4 0 
(0 1.25349550000000000000e+007) (1 -3.52599375000000000000e+006) (2 6.53671600000000000000e+006) (3 2.00417740000000000000e+007) (4 7.30595800000000000000e+006) (5 1.43338820000000000000e+007) (6 -1.64091900000000000000e+007) (7 2.72516540000000000000e+007) (8 8.50143700000000000000e+006) (9 1.94773520000000000000e+007) (10 1.37618080000000000000e+007) (11 9.89361400000000000000e+006) (12 -1.62668140000000000000e+007) (13 1.19877080000000000000e+007) (14 1.38944980000000000000e+007) (15 1.55818800000000000000e+007) (16 -4.50917906250000000000e+005) (17 1.43993210000000000000e+007) (18 1.17652580000000000000e+007) (19 -8.81434000000000000000e+006) (20 -6.01233154296875000000e+002) (0 9.62663600000000000000e+006) (1 -1.60156980000000000000e+007) (2 3.24279360000000000000e+007) (3 2.48126960000000000000e+007) (4 -3.12803475000000000000e+006) (5 3.24320160000000000000e+007) (6 2.56624260000000000000e+007) (7 -2.17010500000000000000e+006) (8 3.24311700000000000000e+007) (9 1.77973300000000000000e+006) (10 7.12998450000000000000e+006) (11 3.24320600000000000000e+007) (12 -6.82372550000000000000e+006) (13 1.10809970000000000000e+007) (14 3.24223120000000000000e+007) (15 1.30904130000000000000e+007) (16 2.12644620000000000000e+007) (17 3.24279100000000000000e+007) (18 3.88056600000000000000e+006) (19 3.25780950000000000000e+006) (20 5.93454052734375000000e+003) (0 -1.02708820000000000000e+007) (1 1.92679760000000000000e+007) (2 2.48948700000000000000e+007) (3 -2.26269800000000000000e+007) (4 1.61687180000000000000e+007) (5 2.51848860000000000000e+007) (6 -2.32199250000000000000e+006) (7 1.89744400000000000000e+007) (8 2.57103520000000000000e+007) (9 -1.62862460000000000000e+007) (10 -7.64894750000000000000e+005) (11 2.58289860000000000000e+007) (12 -1.44739700000000000000e+007) (13 9.75394900000000000000e+006) (14 2.50721400000000000000e+007) (15 -1.48601670000000000000e+007) (16 9.29974700000000000000e+006) (17 2.55408640000000000000e+007) (18 6.27725250000000000000e+005) (19 3.43336175000000000000e+006) (20 -6.19121948242187500000e+002) (21 -2.33448815345764160000e+000) (22 -2.11909532546997070000e-001) (23 1.17793101817369460000e-002) (24 2.53461837768554690000e+000) (21 2.28352487087249760000e-001) (22 3.55203837156295780000e-001) (23 -1.76965391635894780000e+000) (24 1.18609762191772460000e+000) (21 8.16280126571655270000e-001) (22 1.02861607074737550000e+000) (23 1.21739065647125240000e+000) (24 5.82793474197387700000e-001) (21 -8.56908917427062990000e-001) (22 4.63776290416717530000e-001) (23 -1.62467598915100100000e+000) (24 2.01780867576599120000e+000) 
