FANN_FLO_1.1
3 0.700000 1.000000 0 5 5 5.00000000000000000000e-001 5.00000000000000000000e-001
11 4 5 
0 0 0 0 0 0 0 0 0 0 0 
11 11 11 0 
4 4 4 4 0 
(0 3.98359465599060060000e+000) (1 -3.46662133932113650000e-001) (2 1.66724932193756100000e+000) (3 -3.35077017545700070000e-001) (4 -5.66196799278259280000e-001) (5 -3.65077793598175050000e-001) (6 -2.26146197319030760000e+000) (7 1.53752446174621580000e-001) (8 -3.91640329360961910000e+000) (9 4.93833124637603760000e-001) (10 -4.37475204467773440000e+000) (0 2.48541951179504390000e+000) (1 2.93741494417190550000e-001) (2 1.34525704383850100000e+000) (3 3.87542009353637700000e-001) (4 2.62434352189302440000e-002) (5 4.33074653148651120000e-001) (6 -9.10757899284362790000e-001) (7 2.65246361494064330000e-001) (8 -2.17471313476562500000e+000) (9 3.53803992271423340000e-001) (10 -7.55431175231933590000e-001) (0 -4.49254703521728520000e+000) (1 -6.78778812289237980000e-002) (2 -2.04198622703552250000e+000) (3 -1.45705610513687130000e-001) (4 1.97579100728034970000e-001) (5 -4.57823067903518680000e-001) (6 2.62115192413330080000e+000) (7 -2.74485975503921510000e-001) (8 4.33024168014526370000e+000) (9 -2.26368784904479980000e-001) (10 -3.94826436042785640000e+000) (11 -1.19106411933898930000e+000) (12 -2.40987926721572880000e-001) (13 -1.45797419548034670000e+000) (14 2.45804578065872190000e-001) (11 6.82796686887741090000e-002) (12 -3.14634591341018680000e-002) (13 1.29793524742126460000e+000) (14 1.30129599571228030000e+000) (11 1.01107788085937500000e+000) (12 4.44010108709335330000e-001) (13 3.43794375658035280000e-001) (14 8.93330514430999760000e-001) (11 1.50074372683870950000e-016) (12 4.71110857886675280000e-017) (13 1.25351783824343270000e-016) (14 1.36875296494823600000e-017) 
